{
  "input_sequences": [],
  "inputs": [
    {
      "name": "node_0",
      "variables": [
        {
          "name": "jet_DetEta",
          "offset": 0,
          "scale": 1
        },
        {
          "name": "jet_Ntrk1000",
          "offset": 0,
          "scale": 1
        },
        {
          "name": "jet_ChargedFraction",
          "offset": 0,
          "scale": 1
        },
        {
          "name": "jet_JESPt",
          "offset": 0,
          "scale": 1
        },
        {
          "name": "jet_Wtrk1000",
          "offset": 0,
          "scale": 1
        }
      ]
    }
  ],
  "layers": [
    {
      "activation": "rectified",
      "architecture": "dense",
      "bias": [
        0.10836083441972733,
        -0.7025253176689148,
        -0.40329474210739136,
        -0.4352586567401886,
        -1.281751036643982,
        -0.2015029639005661,
        -0.45536375045776367,
        -0.4427317976951599,
        -0.5683380961418152,
        0.045070916414260864,
        -0.6343698501586914,
        -0.7509053945541382,
        -0.9690930843353271,
        -0.4722849130630493,
        -0.31423354148864746,
        -0.235792875289917,
        -0.5826384425163269,
        0.14297018945217133,
        -0.15099242329597473,
        -0.5348190665245056,
        -0.41935160756111145,
        -0.6371736526489258,
        -0.5402915477752686,
        -0.4199518859386444,
        -0.43360137939453125,
        -0.4382387101650238,
        -0.9257405400276184,
        -0.541502833366394,
        -0.575377345085144,
        -0.5178552269935608,
        -0.515680730342865,
        -0.6522056460380554,
        -0.6775991916656494,
        -0.3974854648113251,
        -0.6610278487205505,
        -0.32722899317741394,
        -0.9974662065505981,
        -0.680815577507019,
        -0.4931042492389679,
        -0.5741787552833557,
        -0.40942448377609253,
        -0.5440342426300049,
        -0.2877601385116577,
        -0.5820370316505432,
        0.024678563699126244,
        -0.8246678709983826,
        -0.6202151775360107,
        -0.6887009739875793,
        -0.6122236847877502,
        -0.3589368462562561,
        -0.4328030049800873,
        -0.46110570430755615,
        -0.4176340103149414,
        -0.3720279932022095,
        -0.30941903591156006,
        -0.604136049747467,
        -0.6002669930458069,
        -0.5954568386077881,
        -0.9708131551742554,
        -0.6612926721572876,
        -0.25446000695228577,
        -0.6688684821128845,
        -0.3775039613246918,
        -0.46868133544921875
      ],
      "weights": [
        -0.07206033170223236,
        0.13958488404750824,
        0.18588653206825256,
        -0.07319234311580658,
        -0.08038927614688873,
        -0.08745722472667694,
        0.16328836977481842,
        0.03760692849755287,
        0.33035317063331604,
        -0.17618726193904877,
        -0.0228741355240345,
        0.12220069766044617,
        -0.05126599222421646,
        0.34126582741737366,
        -0.17830558121204376,
        -0.010875312611460686,
        -0.08257868140935898,
        0.06715774536132812,
        -0.5321526527404785,
        -0.07438389211893082,
        -0.07548254728317261,
        0.09938392788171768,
        0.02315806783735752,
        0.7606901526451111,
        -0.13304409384727478,
        -0.14589037001132965,
        0.08983734250068665,
        -0.03393782302737236,
        -0.306037038564682,
        0.24431119859218597,
        -0.05665472149848938,
        -0.19853167235851288,
        0.005151399876922369,
        0.4357924163341522,
        0.09804090857505798,
        -0.14836962521076202,
        -0.021945955231785774,
        -0.23209504783153534,
        0.47210150957107544,
        -0.012414432130753994,
        -0.027745909988880157,
        0.06961536407470703,
        -0.10620547086000443,
        0.5703773498535156,
        -0.045844994485378265,
        -0.04798681661486626,
        -0.012159005738794804,
        -0.1530681550502777,
        0.1464959979057312,
        0.33617815375328064,
        0.005744460038840771,
        0.10814972966909409,
        0.13596786558628082,
        0.5309964418411255,
        -0.382208913564682,
        0.05883407965302467,
        0.20964522659778595,
        -0.2594144642353058,
        0.6392759084701538,
        -0.17635774612426758,
        -0.010816059075295925,
        0.3613770306110382,
        -0.026933852583169937,
        0.6754037737846375,
        -0.08826946467161179,
        0.04545605555176735,
        0.28306758403778076,
        -0.320600688457489,
        0.7225568890571594,
        -0.18757589161396027,
        -0.046897150576114655,
        0.06344175338745117,
        -0.04160954803228378,
        0.17407159507274628,
        -0.12021089345216751,
        -0.03542102128267288,
        -0.03126389533281326,
        0.006758224219083786,
        0.02442849427461624,
        0.003114487510174513,
        -0.0335494689643383,
        0.07747481018304825,
        0.019877217710018158,
        -0.47539573907852173,
        0.028417248278856277,
        -0.14373785257339478,
        0.17829641699790955,
        0.16589748859405518,
        -0.07541896402835846,
        0.11127099394798279,
        -0.012021182104945183,
        0.01921253092586994,
        -0.012463267892599106,
        -0.022195179015398026,
        -0.002947381464764476,
        0.009854444302618504,
        0.12996052205562592,
        0.08180780708789825,
        0.6045146584510803,
        -0.17420898377895355,
        -0.031986210495233536,
        -0.018705878406763077,
        0.09193563461303711,
        -0.25347480177879333,
        -0.04532843455672264,
        -0.06462227553129196,
        0.03629636764526367,
        0.19404911994934082,
        0.6980631947517395,
        0.00627277884632349,
        -0.05263536795973778,
        -0.00478157214820385,
        0.17721553146839142,
        0.8379397392272949,
        0.14446313679218292,
        0.11761482805013657,
        0.03924860805273056,
        -0.049662794917821884,
        0.5309805274009705,
        -0.06206550821661949,
        -0.007860700599849224,
        0.06275618821382523,
        -0.045741625130176544,
        -0.08170707523822784,
        -0.009387384168803692,
        -0.10845921188592911,
        0.1015901267528534,
        0.2904486656188965,
        0.468924880027771,
        -0.12353143095970154,
        -0.17571908235549927,
        0.30455756187438965,
        0.01997874304652214,
        0.7934913039207458,
        -0.09306151419878006,
        -0.0011916435323655605,
        -0.16599322855472565,
        0.06082892045378685,
        0.4855743646621704,
        -0.04131553694605827,
        -0.02886243537068367,
        0.17195360362529755,
        -0.19597375392913818,
        0.7365044355392456,
        -0.4061429500579834,
        0.012288342230021954,
        -0.11219736933708191,
        0.10305025428533554,
        -0.631869375705719,
        -0.03329839929938316,
        -0.1089218482375145,
        0.17274846136569977,
        0.013226629234850407,
        0.5108398795127869,
        -0.13424204289913177,
        -0.0009345830185338855,
        -0.19295799732208252,
        0.006365962326526642,
        -0.5699869394302368,
        0.05701356753706932,
        -0.05728420242667198,
        0.17661471664905548,
        0.30485832691192627,
        -0.5154032111167908,
        -0.07763226330280304,
        0.01137290894985199,
        0.05425531044602394,
        -0.0010551427258178592,
        -0.17795325815677643,
        -0.00038212299114093184,
        0.007991516962647438,
        -0.13790595531463623,
        0.06635065376758575,
        -0.7622412443161011,
        0.17782148718833923,
        -0.017076104879379272,
        0.1659446805715561,
        0.04725511744618416,
        0.39504027366638184,
        -0.09265107661485672,
        0.008255948312580585,
        0.09698770940303802,
        -0.06520603597164154,
        0.4391905665397644,
        -0.11769154667854309,
        0.013038717210292816,
        -0.19689969718456268,
        0.05348744988441467,
        -0.8249601721763611,
        0.0865449383854866,
        0.1927935928106308,
        -0.14264805614948273,
        0.056847650557756424,
        -0.5697075724601746,
        0.23645475506782532,
        -0.0343453511595726,
        -0.1272316575050354,
        0.0396001935005188,
        -0.6996250748634338,
        -0.055580612272024155,
        0.14715737104415894,
        0.12395626306533813,
        0.18548555672168732,
        0.6477268934249878,
        -0.0701344907283783,
        0.0696316659450531,
        0.3056521713733673,
        -0.11974607408046722,
        0.6965181231498718,
        -0.34315207600593567,
        0.17123717069625854,
        -0.02131657674908638,
        0.02908332459628582,
        0.3354150354862213,
        -0.03771103546023369,
        -0.09530893713235855,
        0.09503564983606339,
        -0.1086525171995163,
        0.4112248122692108,
        -0.3198278248310089,
        0.06792508065700531,
        0.10362286120653152,
        -0.12262696027755737,
        0.16720522940158844,
        0.25671622157096863,
        0.09808994829654694,
        0.37053197622299194,
        -0.037572599947452545,
        0.4734724164009094,
        0.0042157843708992004,
        0.058620963245630264,
        0.14386063814163208,
        0.0664471909403801,
        0.6665559411048889,
        -0.21046270430088043,
        -0.008066738024353981,
        0.2537636458873749,
        0.1587849259376526,
        0.656665563583374,
        -0.2848639488220215,
        0.0037969655822962523,
        0.03692357614636421,
        -0.0001424762886017561,
        -0.2528950870037079,
        0.04630624130368233,
        -0.04720625653862953,
        -0.03807876631617546,
        0.001858840580098331,
        -0.07726576179265976,
        0.027893807739019394,
        -0.12157958745956421,
        0.1004781424999237,
        0.08557205647230148,
        0.4990742802619934,
        0.04683633893728256,
        0.12463665753602982,
        0.13256919384002686,
        0.11201436072587967,
        0.4686321020126343,
        -0.06489570438861847,
        0.03355489671230316,
        -0.060087405145168304,
        0.024116819724440575,
        -0.5007829070091248,
        0.0013773327227681875,
        -0.023366261273622513,
        0.03611767664551735,
        -0.013961619697511196,
        0.011337772943079472,
        0.024062367156147957,
        0.07700097560882568,
        -0.03986099734902382,
        0.13792262971401215,
        0.4848414659500122,
        0.23674003779888153,
        0.06873642653226852,
        -0.11877632886171341,
        -0.10656993836164474,
        0.19238519668579102,
        0.19554759562015533,
        0.018436042591929436,
        -0.00960055086761713,
        0.003186978166922927,
        -0.2752210795879364,
        0.03968876227736473,
        -0.024731231853365898,
        0.23249173164367676,
        -0.24129948019981384,
        0.7504606246948242,
        -0.4281081557273865,
        0.03692113608121872,
        0.08301042020320892,
        -0.141203373670578,
        0.07251778244972229,
        -0.4222163259983063,
        0.02125263214111328,
        0.1669718325138092,
        0.03593631833791733,
        0.5489577651023865,
        -0.19473887979984283,
        -0.3081446886062622,
        0.19238921999931335,
        -0.46826353669166565,
        0.27170827984809875,
        -0.1466844528913498,
        0.0664266049861908,
        0.26331910490989685,
        -0.3127969801425934,
        0.5527307391166687,
        -0.09366415441036224,
        -0.02228100784122944,
        -0.005583245772868395,
        -0.05652651563286781,
        -0.46336010098457336,
        0.14922760426998138,
        -0.055968277156353,
        -0.13943535089492798,
        0.1601955145597458,
        -0.5973652005195618,
        0.11592143774032593
      ]
    },
    {
      "activation": "rectified",
      "architecture": "dense",
      "bias": [
        -0.3923526108264923,
        0.034169163554906845,
        -0.7902755737304688,
        -0.07139910012483597,
        -0.7467548847198486,
        0.19957369565963745,
        -0.6270109415054321,
        -0.4684697389602661,
        0.02105451002717018,
        0.12623055279254913,
        -0.3611676096916199,
        0.1669643074274063,
        -0.21237511932849884,
        -0.24012242257595062,
        -0.7363281846046448,
        -0.13343259692192078,
        -0.78758305311203,
        -0.08172692358493805,
        -1.318976879119873,
        -0.890492856502533,
        -0.250226229429245,
        -0.36847999691963196,
        -0.06779032200574875,
        -0.11166632175445557,
        -0.23820804059505463,
        -0.4652887284755707,
        -0.3169994354248047,
        -0.3631891906261444,
        -0.9432575106620789,
        -0.026262836530804634,
        -0.7474760413169861,
        -0.16226816177368164,
        0.12964925169944763,
        -0.04397604241967201,
        0.05217459797859192,
        -0.3686012029647827,
        -0.6290720701217651,
        -0.3614428639411926,
        -0.308717280626297,
        -0.5511619448661804,
        -0.246599018573761,
        -1.4454405307769775,
        -0.12151410430669785,
        -0.7496247291564941,
        -0.18677271902561188,
        -0.23112338781356812,
        -0.11119351536035538,
        0.2644829750061035,
        -0.15545305609703064,
        -0.5400257706642151,
        -0.1689591407775879,
        -0.4332336485385895,
        -0.5247204303741455,
        -0.14372491836547852,
        -0.4624667763710022,
        -1.5092114210128784,
        -0.34577104449272156,
        -0.50551837682724,
        -0.4225897490978241,
        -0.19172726571559906,
        0.15655861794948578,
        -0.3084492087364197,
        -1.1541433334350586,
        -0.19259575009346008
      ],
      "weights": [
        0.35022711753845215,
        -0.7754421830177307,
        -0.32297438383102417,
        -0.6320666074752808,
        -0.6801368594169617,
        -0.43673384189605713,
        0.11989914625883102,
        -0.3032052218914032,
        -0.36172494292259216,
        -0.13630183041095734,
        -0.19296957552433014,
        -0.4205001890659332,
        -0.05216791853308678,
        -0.19238722324371338,
        -0.07821951806545258,
        -0.15636807680130005,
        0.10957932472229004,
        -0.2510690689086914,
        0.08146347850561142,
        0.03830132633447647,
        0.20374178886413574,
        -0.11330431699752808,
        -0.49806612730026245,
        -0.3418693244457245,
        -0.10966828465461731,
        -0.14355745911598206,
        -0.955017626285553,
        0.05936025455594063,
        -0.5506991147994995,
        0.2077455222606659,
        -0.07553685456514359,
        -0.18069012463092804,
        -0.21757766604423523,
        -1.1891785860061646,
        -0.4706839919090271,
        -0.142804816365242,
        0.11150199919939041,
        0.06577315926551819,
        0.037189219146966934,
        0.3830919861793518,
        0.30815595388412476,
        -0.6886823773384094,
        0.17302653193473816,
        0.25810176134109497,
        -0.218550905585289,
        -0.10169945657253265,
        -0.4183632731437683,
        -0.22386924922466278,
        -0.5631467700004578,
        0.13446786999702454,
        0.6666274666786194,
        -0.7673019170761108,
        0.19679155945777893,
        0.11998628079891205,
        -0.5397850871086121,
        -0.2175106704235077,
        7.63320058467798e-05,
        -0.3249494135379791,
        -0.2651955187320709,
        -0.3610092103481293,
        0.12781694531440735,
        -0.05146133527159691,
        -0.696847140789032,
        0.07440236955881119,
        -0.47624874114990234,
        0.6366379261016846,
        0.010033238679170609,
        -0.4036177694797516,
        -1.1086397171020508,
        -0.9854575395584106,
        -0.17960646748542786,
        -0.30622437596321106,
        -0.41897475719451904,
        -0.23107433319091797,
        0.28402504324913025,
        0.059152986854314804,
        0.04526171460747719,
        -0.021299049258232117,
        -0.8778716921806335,
        -0.3606266975402832,
        -1.332024335861206,
        -0.11099779605865479,
        0.045342784374952316,
        -0.07234492152929306,
        -1.8931186199188232,
        -0.6925469040870667,
        -0.2566468119621277,
        0.8389612436294556,
        -0.02195211872458458,
        0.4654548764228821,
        -1.5840593576431274,
        0.1337457001209259,
        0.28932833671569824,
        -1.3517718315124512,
        0.7308555245399475,
        -1.2509387731552124,
        -0.8445942997932434,
        -0.1869107335805893,
        -0.9545628428459167,
        -0.044527553021907806,
        0.37604641914367676,
        -1.9662855863571167,
        -1.056161880493164,
        -1.3765490055084229,
        0.05179665610194206,
        0.8456687331199646,
        -0.40026208758354187,
        0.36956220865249634,
        -0.5570301413536072,
        0.6227661967277527,
        0.6436694860458374,
        -0.23884522914886475,
        -0.9539472460746765,
        -0.05745837092399597,
        0.22118042409420013,
        -0.35065165162086487,
        -0.21549537777900696,
        0.09793197363615036,
        -0.17772656679153442,
        0.4129011332988739,
        -1.1228175163269043,
        0.3925672173500061,
        -0.2345590740442276,
        0.1672605574131012,
        0.044056665152311325,
        0.17226380109786987,
        -0.5903787612915039,
        -1.1696128845214844,
        -0.20558011531829834,
        -0.24518375098705292,
        0.36231091618537903,
        0.6370391845703125,
        -1.796043872833252,
        0.04696802422404289,
        0.11427503079175949,
        0.07918056845664978,
        0.26814165711402893,
        -0.0739949494600296,
        0.3440891206264496,
        0.5089547038078308,
        -0.4859048128128052,
        0.5201238989830017,
        0.20107874274253845,
        -0.2343767136335373,
        0.28970208764076233,
        -0.0030688997358083725,
        0.01989637315273285,
        0.5207457542419434,
        0.15023477375507355,
        0.903242290019989,
        0.7329526543617249,
        0.8688392043113708,
        0.11102862656116486,
        0.6611897349357605,
        0.7796927094459534,
        0.8883237838745117,
        0.12043371796607971,
        -0.4100829064846039,
        -0.19650232791900635,
        0.3267163038253784,
        0.10463318228721619,
        0.2710892856121063,
        0.1638665497303009,
        0.9145975112915039,
        -0.9809861183166504,
        0.5377723574638367,
        -0.004964862484484911,
        0.39607277512550354,
        1.0313118696212769,
        0.413433700799942,
        0.01036002952605486,
        0.6034015417098999,
        0.0819995328783989,
        -0.6838657259941101,
        1.0119671821594238,
        0.25727754831314087,
        -0.041693441569805145,
        0.28737950325012207,
        0.4551650881767273,
        0.643963634967804,
        -0.5086241960525513,
        -0.5251628756523132,
        0.005733021534979343,
        0.6866115927696228,
        0.03263360634446144,
        -0.030556602403521538,
        -0.29635050892829895,
        0.015087496489286423,
        0.3476782441139221,
        0.4887346625328064,
        0.3545664846897125,
        0.19043907523155212,
        0.17354348301887512,
        -0.12950065732002258,
        -0.24561288952827454,
        -0.205814391374588,
        -0.5465381741523743,
        -0.5973694324493408,
        0.033215757459402084,
        -0.9821288585662842,
        -0.22471030056476593,
        -0.45449602603912354,
        -0.2971157133579254,
        -0.721742570400238,
        -0.5696826577186584,
        0.2423144280910492,
        -0.07169238477945328,
        -0.14964431524276733,
        0.285174697637558,
        0.6147189736366272,
        0.2972108721733093,
        -0.10420659184455872,
        0.3778739869594574,
        -0.3491193652153015,
        -0.940119206905365,
        0.31040066480636597,
        0.11415965855121613,
        -0.015559418126940727,
        -0.5255887508392334,
        0.10183653235435486,
        -0.7071225643157959,
        0.42849186062812805,
        -0.6322936415672302,
        0.0945226401090622,
        -0.21567313373088837,
        0.0908285602927208,
        0.09470902383327484,
        0.5347415208816528,
        -0.9322934150695801,
        0.24015748500823975,
        -0.7145033478736877,
        0.5014331340789795,
        -0.58768630027771,
        -0.5457372665405273,
        0.13978669047355652,
        -0.8326480388641357,
        0.08503349870443344,
        -0.7033398151397705,
        -0.8229464292526245,
        -0.7161473035812378,
        -0.07888617366552353,
        -0.31904658675193787,
        -0.3924383223056793,
        -0.014090586453676224,
        0.5425119400024414,
        0.006481162738054991,
        -0.37981531023979187,
        -0.13366317749023438,
        0.3971394896507263,
        -0.007516725454479456,
        -0.06325844675302505,
        -0.027264760807156563,
        -0.6456676721572876,
        -0.3796541392803192,
        0.16767124831676483,
        0.6204580664634705,
        0.41611185669898987,
        0.2553831934928894,
        -0.2992677092552185,
        0.8970246911048889,
        1.194032907485962,
        0.6150802969932556,
        0.4411367177963257,
        0.4971370995044708,
        0.1571751832962036,
        -0.09237843751907349,
        0.08794060349464417,
        -0.13252221047878265,
        0.031357403844594955,
        0.30020174384117126,
        -0.09445952624082565,
        -0.3366481363773346,
        0.5094740390777588,
        -0.268584281206131,
        0.11173520982265472,
        0.4024113416671753,
        0.5261470079421997,
        -0.3304901421070099,
        0.15945324301719666,
        0.2831672132015228,
        -0.2067878097295761,
        0.5943010449409485,
        -0.18238255381584167,
        0.5759286284446716,
        0.09807237982749939,
        0.8401237726211548,
        0.5190669298171997,
        0.5927652716636658,
        -0.05886884406208992,
        0.4827912747859955,
        1.261988878250122,
        -0.40611037611961365,
        0.4721566140651703,
        0.765481173992157,
        0.5127268433570862,
        0.847080647945404,
        0.6575763821601868,
        0.17696571350097656,
        -0.08778032660484314,
        -0.056078821420669556,
        -0.237144336104393,
        0.6178852915763855,
        0.3617422580718994,
        -0.33137327432632446,
        0.6067172884941101,
        -0.23874779045581818,
        0.311811238527298,
        -0.5401463508605957,
        0.5444318056106567,
        0.04930906742811203,
        -0.22261075675487518,
        -0.020590776577591896,
        0.4471145272254944,
        0.04336192458868027,
        0.22746002674102783,
        -0.33983850479125977,
        0.0026878579519689083,
        -0.06962504982948303,
        0.3124961853027344,
        0.43658700585365295,
        -0.17853057384490967,
        -0.9509259462356567,
        -0.32238441705703735,
        -0.010147572495043278,
        -0.21929340064525604,
        0.24116650223731995,
        0.6440302729606628,
        -0.31755173206329346,
        0.07627323269844055,
        -0.3410230875015259,
        -0.1354004293680191,
        -0.9394837617874146,
        -0.011568720452487469,
        -0.11840767413377762,
        -0.45439183712005615,
        -0.010816403664648533,
        -0.04691370949149132,
        -0.6914165019989014,
        -0.033823613077402115,
        -0.5635912418365479,
        0.3213052749633789,
        -0.8428802490234375,
        -0.6967733502388,
        -0.5630102753639221,
        -0.5874333381652832,
        -0.6435319781303406,
        -0.9519864916801453,
        -1.3403644561767578,
        -0.22316844761371613,
        -1.0933223962783813,
        -0.3646964430809021,
        -0.8920385241508484,
        -0.12673042714595795,
        -0.11624130606651306,
        -0.810023844242096,
        -0.45360860228538513,
        -0.29347890615463257,
        -0.9452358484268188,
        -0.6608479619026184,
        -0.5628198385238647,
        -0.27768296003341675,
        -0.27857595682144165,
        -1.1014535427093506,
        -0.5019705295562744,
        -0.27623090147972107,
        -0.20207425951957703,
        -0.6243775486946106,
        -0.5857260227203369,
        0.32598984241485596,
        -0.23481859266757965,
        -1.7097976207733154,
        -0.3178170621395111,
        -0.0225388053804636,
        -0.6744676232337952,
        -1.2173293828964233,
        -0.5508636236190796,
        -0.37362727522850037,
        -0.5256447196006775,
        -0.6195952296257019,
        -0.8116884231567383,
        -0.17150340974330902,
        -0.050433676689863205,
        0.1888437718153,
        0.1475585252046585,
        -1.0544568300247192,
        -0.2664260268211365,
        -0.5705657005310059,
        0.16631363332271576,
        -0.4081975519657135,
        -0.17692804336547852,
        0.4963877499103546,
        0.14967858791351318,
        -0.5671229958534241,
        -0.1567152589559555,
        0.025062378495931625,
        -0.3831528127193451,
        -0.027463125064969063,
        0.26922187209129333,
        0.03595200553536415,
        -0.12043468654155731,
        -0.16174767911434174,
        -0.014078080654144287,
        -0.03441542387008667,
        -0.2284277379512787,
        -0.11072293668985367,
        0.033654678612947464,
        -0.01756138540804386,
        -0.1775997281074524,
        -0.029197566211223602,
        0.6311765313148499,
        -0.7933489680290222,
        0.07117533683776855,
        -0.3337130844593048,
        -0.39674094319343567,
        0.29284268617630005,
        -0.26788440346717834,
        0.1284497231245041,
        -0.3672201633453369,
        -0.03964614123106003,
        -0.27653300762176514,
        -0.6131891012191772,
        -0.22410757839679718,
        0.5394218564033508,
        0.40427449345588684,
        0.3907060921192169,
        -0.14575156569480896,
        0.07577955722808838,
        -0.009973609820008278,
        -0.460178017616272,
        -0.15332433581352234,
        0.12289844453334808,
        -0.34408268332481384,
        -0.03281484916806221,
        -0.11068632453680038,
        0.14543147385120392,
        -0.5458017587661743,
        -0.40652087330818176,
        0.13419051468372345,
        -0.04331984370946884,
        -0.21934321522712708,
        -0.006347001530230045,
        -0.4719860255718231,
        -0.2842969298362732,
        -0.4752334654331207,
        -0.601186990737915,
        -0.1349731683731079,
        -0.1833116114139557,
        0.21983368694782257,
        -0.33991023898124695,
        0.27192556858062744,
        -0.20163360238075256,
        0.09199191629886627,
        0.05209720507264137,
        -0.45284581184387207,
        -0.6838619709014893,
        0.012246080674231052,
        -0.10088028013706207,
        -0.15240299701690674,
        0.37670350074768066,
        0.23956157267093658,
        0.43573084473609924,
        -0.26588672399520874,
        -0.0016664696158841252,
        -0.28440728783607483,
        0.05977551266551018,
        -0.2027885615825653,
        0.11839306354522705,
        0.04726911336183548,
        0.3291633427143097,
        0.024698907509446144,
        0.13141274452209473,
        -0.6295574307441711,
        0.22830045223236084,
        0.3405660390853882,
        -0.3278868496417999,
        0.1258345991373062,
        -0.054167527705430984,
        0.649868369102478,
        0.09718995541334152,
        -0.5674475431442261,
        0.07011321932077408,
        0.5349512100219727,
        -0.7881827354431152,
        -0.4074467718601227,
        -0.36897149682044983,
        -0.03930079564452171,
        -0.5061466693878174,
        -0.25140443444252014,
        -0.3006998300552368,
        -1.1023162603378296,
        -0.19950352609157562,
        0.10737181454896927,
        -0.1927562952041626,
        -0.3719506561756134,
        -0.40497592091560364,
        -0.24976687133312225,
        0.30486008524894714,
        -0.08736789971590042,
        -0.3629678785800934,
        -0.33337944746017456,
        -0.2153458446264267,
        -0.5086485147476196,
        -0.30869197845458984,
        0.34332120418548584,
        -0.5063903331756592,
        0.012589256279170513,
        -0.11746855825185776,
        0.10645066201686859,
        -0.23992931842803955,
        0.06939728558063507,
        -0.09747681766748428,
        0.15246765315532684,
        -0.038472648710012436,
        -0.6492311954498291,
        -0.09612051397562027,
        0.37066686153411865,
        0.06355955451726913,
        -0.47985410690307617,
        0.34861910343170166,
        0.17429158091545105,
        -0.0976593941450119,
        -0.10927225649356842,
        -0.873162031173706,
        -0.08213035017251968,
        -0.7618842720985413,
        -1.065544605255127,
        -0.2402389496564865,
        0.38231199979782104,
        0.5139808058738708,
        0.02990013360977173,
        -0.4711272120475769,
        0.4163098633289337,
        1.0194451808929443,
        -0.8169798254966736,
        -0.22314265370368958,
        0.02092997543513775,
        -0.18613220751285553,
        -0.006005328148603439,
        -0.4210398197174072,
        -0.6655141115188599,
        -0.070722296833992,
        -0.13489297032356262,
        -0.07985854893922806,
        0.011847986839711666,
        0.06185486540198326,
        -0.36780500411987305,
        0.3019399344921112,
        -0.31367817521095276,
        -0.9286102652549744,
        0.03238649293780327,
        -0.1439799964427948,
        -0.3732023239135742,
        -0.8779319524765015,
        -0.013068531639873981,
        0.383266806602478,
        -0.43868783116340637,
        0.4263917803764343,
        -0.5235899090766907,
        -0.29658961296081543,
        -1.2394092082977295,
        -0.27476197481155396,
        -0.11484405398368835,
        -0.5179843902587891,
        -0.7592127919197083,
        0.341848224401474,
        0.07868290692567825,
        -0.7783342003822327,
        -0.3179726004600525,
        -0.22780808806419373,
        -0.8227383494377136,
        -0.6738475561141968,
        -0.9912585616111755,
        0.3089970052242279,
        -0.7193913459777832,
        0.12807561457157135,
        0.2492118924856186,
        -0.33590900897979736,
        -0.3272174894809723,
        0.18806734681129456,
        -1.1209205389022827,
        -1.2067959308624268,
        0.2961668074131012,
        -0.4905162453651428,
        -1.0534698963165283,
        -0.18805770576000214,
        -0.21756356954574585,
        -0.14131265878677368,
        0.46348148584365845,
        0.11438871920108795,
        -0.22244954109191895,
        0.10543559491634369,
        0.2480817288160324,
        -0.4351166784763336,
        0.29173049330711365,
        -0.06470078974962234,
        0.29365912079811096,
        -0.4754430055618286,
        -0.18301062285900116,
        0.6108768582344055,
        0.09701572358608246,
        -0.2550962269306183,
        -0.3653710186481476,
        -0.18408526480197906,
        -0.10745473206043243,
        0.03812026605010033,
        -0.20274369418621063,
        0.14088398218154907,
        -0.024259226396679878,
        -0.9560507535934448,
        -0.15943506360054016,
        -0.2589833736419678,
        -0.6424388289451599,
        -0.16363990306854248,
        -0.6570258736610413,
        -0.9084157943725586,
        -0.19582603871822357,
        0.44329482316970825,
        0.7557772994041443,
        0.2503347396850586,
        0.0730091780424118,
        -0.10357078164815903,
        -0.19483299553394318,
        0.5229856967926025,
        -0.13742291927337646,
        0.9242058992385864,
        -0.05489889532327652,
        0.23553429543972015,
        0.5232099890708923,
        -0.7115537524223328,
        0.04088642820715904,
        0.44115087389945984,
        0.11896645277738571,
        -0.831099808216095,
        0.08515644073486328,
        -0.24641549587249756,
        0.18341240286827087,
        -0.2692192792892456,
        -0.24890737235546112,
        -0.06390271335840225,
        0.08011659234762192,
        -1.1582448482513428,
        -0.317960649728775,
        0.20655784010887146,
        -0.6666305065155029,
        -1.7191548347473145,
        -0.019300086423754692,
        0.3968113362789154,
        -0.2227068841457367,
        -0.8886696696281433,
        -0.20194153487682343,
        0.3363935351371765,
        0.2688042223453522,
        -1.2964963912963867,
        -0.07223112881183624,
        0.11860884726047516,
        -1.044829249382019,
        -0.617913007736206,
        0.15805684030056,
        0.021596169099211693,
        0.45121634006500244,
        -0.5811196565628052,
        -0.16991889476776123,
        -0.4622129201889038,
        0.8333684802055359,
        -0.06994042545557022,
        0.1509883999824524,
        -1.8572156429290771,
        0.5648283362388611,
        0.2096089869737625,
        -0.9372233152389526,
        -0.5363690257072449,
        -0.37782731652259827,
        -0.9241790771484375,
        0.29288947582244873,
        -0.25703445076942444,
        -0.057115864008665085,
        -0.11703949421644211,
        -0.5407227873802185,
        0.28849393129348755,
        -0.22101229429244995,
        -0.05749143287539482,
        0.010280819609761238,
        0.0584694966673851,
        0.5129529237747192,
        0.26450344920158386,
        -1.1858632564544678,
        0.34553349018096924,
        -0.0959327220916748,
        -0.09460432827472687,
        0.30666330456733704,
        0.3476892113685608,
        0.476963073015213,
        -1.273833990097046,
        0.03691207617521286,
        -0.5103950500488281,
        0.10911653935909271,
        -0.10745461285114288,
        0.12172990292310715,
        -0.9911704063415527,
        -0.00668218731880188,
        -0.09465218335390091,
        -0.34120091795921326,
        -0.19912317395210266,
        0.07242197543382645,
        0.04245465248823166,
        -0.20376747846603394,
        0.6577934622764587,
        0.5052270293235779,
        -1.7291339635849,
        -0.15162856876850128,
        0.19606368243694305,
        -1.8408503532409668,
        0.6980299353599548,
        -0.43496763706207275,
        0.05691742151975632,
        0.34230920672416687,
        -1.238783597946167,
        0.09780397266149521,
        -0.20265285670757294,
        0.022714532911777496,
        -0.03745663911104202,
        0.4531557559967041,
        0.5203977227210999,
        -0.46914851665496826,
        -0.31324806809425354,
        0.36600762605667114,
        0.31740105152130127,
        -0.5551194548606873,
        0.2320907860994339,
        -0.1736864298582077,
        -0.2210693508386612,
        -0.8876013159751892,
        0.7227778434753418,
        -0.8411112427711487,
        -0.7349575161933899,
        -0.49838659167289734,
        -0.14967156946659088,
        -0.654671311378479,
        -0.7054880261421204,
        -0.2901551127433777,
        -0.8598212003707886,
        -1.884201169013977,
        -0.5514026880264282,
        -0.5532931089401245,
        -0.43914350867271423,
        0.4983004331588745,
        -0.11408314853906631,
        -0.49678418040275574,
        -0.289560467004776,
        -0.0817735493183136,
        0.4520398676395416,
        -0.5414041876792908,
        -0.8637131452560425,
        -0.40399137139320374,
        -0.6620050072669983,
        0.38358843326568604,
        -0.1556050330400467,
        -0.30123457312583923,
        0.7282935976982117,
        -0.4302692711353302,
        0.08182195574045181,
        0.16475306451320648,
        -0.051361024379730225,
        -0.5983582735061646,
        0.2595619857311249,
        -0.2933160960674286,
        0.17546981573104858,
        -0.6476896405220032,
        -0.3481898903846741,
        0.28198474645614624,
        -0.1931520402431488,
        -0.49950236082077026,
        -1.9706079959869385,
        -0.05700021609663963,
        0.19293269515037537,
        0.9218950867652893,
        0.23223921656608582,
        0.13189077377319336,
        -0.23451140522956848,
        -0.8832994103431702,
        -0.856605052947998,
        -0.10451177507638931,
        -0.16413892805576324,
        0.49688631296157837,
        -1.1382672786712646,
        0.04872100427746773,
        0.017899077385663986,
        -0.8513535857200623,
        -1.0621193647384644,
        -0.4863961637020111,
        -0.500497579574585,
        -0.2530349791049957,
        0.32530900835990906,
        0.068059541285038,
        -0.8883192539215088,
        0.23751935362815857,
        -0.6322951912879944,
        -1.3027617931365967,
        0.4041246473789215,
        -1.1817429065704346,
        -0.6886701583862305,
        -0.08473631739616394,
        0.042756903916597366,
        -0.7740015387535095,
        0.0010266357567161322,
        -0.7172130346298218,
        -0.6232945322990417,
        -1.3662112951278687,
        0.01533610187470913,
        0.20272721350193024,
        -0.4311179220676422,
        -0.5675607323646545,
        -0.3017083704471588,
        0.43607017397880554,
        -0.5856364965438843,
        0.19827112555503845,
        0.16713139414787292,
        0.05647607892751694,
        -0.5117802023887634,
        0.1617603898048401,
        -0.10575476288795471,
        -0.2156345099210739,
        -0.8618723750114441,
        0.693239152431488,
        -0.0394105464220047,
        -0.028514202684164047,
        0.5154942274093628,
        0.5265957117080688,
        -1.2434641122817993,
        -0.09842146933078766,
        -0.8672031760215759,
        -0.34149160981178284,
        0.16978302597999573,
        0.5916095972061157,
        -0.5111817717552185,
        -0.18705233931541443,
        -1.3710418939590454,
        0.19397711753845215,
        -0.52793288230896,
        0.13877816498279572,
        0.035364534705877304,
        -0.05922221392393112,
        -0.5298499464988708,
        0.48605605959892273,
        -0.7242096662521362,
        -0.18971693515777588,
        0.16610558331012726,
        0.21218077838420868,
        -0.8087085485458374,
        0.3705778121948242,
        -0.15215536952018738,
        -0.2305009514093399,
        -0.8675163984298706,
        0.3930542469024658,
        -0.04854197800159454,
        0.43167465925216675,
        0.2339525818824768,
        0.18152166903018951,
        -1.8505795001983643,
        -0.6175820827484131,
        0.4825468063354492,
        -1.0511327981948853,
        0.12326249480247498,
        -1.1463886499404907,
        -0.6871028542518616,
        -0.9031904935836792,
        -0.5021708607673645,
        0.38633668422698975,
        0.29238906502723694,
        -0.7467654943466187,
        -0.8975417613983154,
        -1.185680627822876,
        -1.0015376806259155,
        -0.6354447603225708,
        0.10034382343292236,
        0.5584201812744141,
        -0.22392132878303528,
        -0.2057114839553833,
        -0.2744179666042328,
        0.07493489980697632,
        -0.03939807042479515,
        0.12761883437633514,
        0.026535244658589363,
        0.2209378033876419,
        -0.36936014890670776,
        -0.24333180487155914,
        0.34854555130004883,
        -0.2252037674188614,
        -0.2098078578710556,
        0.05589219555258751,
        -0.5892427563667297,
        -0.22342419624328613,
        0.32539981603622437,
        -0.05226121470332146,
        -0.1556864082813263,
        0.1748041957616806,
        0.2250261902809143,
        0.18625561892986298,
        -0.11023803055286407,
        -0.7598044872283936,
        -2.6409289836883545,
        0.4099864065647125,
        -0.06734399497509003,
        0.4457862675189972,
        0.039827924221754074,
        0.24351738393306732,
        -0.06239483132958412,
        0.9042250514030457,
        -0.7836185693740845,
        0.178192600607872,
        -0.018965091556310654,
        -0.03405070677399635,
        -2.1544911861419678,
        0.009000614285469055,
        0.15279024839401245,
        -0.7964513897895813,
        -0.9081255793571472,
        0.6732578873634338,
        0.6366839408874512,
        -0.17551258206367493,
        0.055663350969552994,
        1.0221599340438843,
        -2.5569698810577393,
        -0.255719393491745,
        -0.13901305198669434,
        -1.9490094184875488,
        0.10361520200967789,
        -1.3512067794799805,
        -1.4106478691101074,
        -0.3558236062526703,
        -1.0182539224624634,
        0.11968638747930527,
        0.5327340960502625,
        -1.563930630683899,
        -1.5079301595687866,
        -1.3261628150939941,
        -0.07882599532604218,
        0.2116950899362564,
        0.7251594066619873,
        -0.426881343126297,
        -0.19459551572799683,
        -0.05389285460114479,
        0.4982927739620209,
        0.44839075207710266,
        -0.0640636757016182,
        0.03267785906791687,
        0.3370356261730194,
        -0.5458942651748657,
        -0.6584371328353882,
        0.2282688170671463,
        0.932743489742279,
        1.4811959266662598,
        -1.0070656538009644,
        0.18425984680652618,
        -0.4949781596660614,
        -0.789143979549408,
        0.4226379096508026,
        0.34693390130996704,
        -0.6323563456535339,
        -1.5021270513534546,
        0.33940204977989197,
        -0.9876953959465027,
        -0.8221525549888611,
        -0.8292302489280701,
        -1.7305082082748413,
        0.23892031610012054,
        0.26515787839889526,
        0.020837528631091118,
        -0.9531844854354858,
        -0.4591955840587616,
        0.3638754189014435,
        0.09931720048189163,
        -1.5922799110412598,
        0.13503707945346832,
        -0.5956808924674988,
        0.022648943588137627,
        -0.05505560338497162,
        -0.7008306384086609,
        0.10131692886352539,
        -0.14915567636489868,
        -0.2535836398601532,
        -0.705145001411438,
        0.0425296388566494,
        -0.25851935148239136,
        0.3769167959690094,
        -0.9398760199546814,
        -0.510050892829895,
        0.24554407596588135,
        0.13501445949077606,
        -0.9260483980178833,
        0.1259613186120987,
        -1.9636623859405518,
        -0.32231059670448303,
        -0.37000522017478943,
        -1.2484420537948608,
        -0.0288994163274765,
        0.02612178400158882,
        -1.001402497291565,
        -0.5987151265144348,
        -0.24237167835235596,
        -0.33375394344329834,
        0.08120936155319214,
        -0.11264418810606003,
        -0.3967316746711731,
        -0.3220002353191376,
        -0.5608223080635071,
        -0.49279552698135376,
        0.085564523935318,
        -0.5970990657806396,
        0.15396614372730255,
        -0.31107184290885925,
        -0.6222800612449646,
        0.38357844948768616,
        -0.19169695675373077,
        -0.357986181974411,
        0.1199403703212738,
        -0.27565377950668335,
        0.07187774032354355,
        -0.9283618927001953,
        -0.28415870666503906,
        -0.32531383633613586,
        -0.2798248529434204,
        0.0027207855600863695,
        -0.03641825541853905,
        0.41208967566490173,
        -0.006170325912535191,
        0.07377034425735474,
        0.7073801159858704,
        1.365488052368164,
        0.3193463087081909,
        0.3759962320327759,
        0.2821519076824188,
        -0.1413753479719162,
        -0.3460540175437927,
        -0.10906697809696198,
        0.2841818928718567,
        -0.03940855339169502,
        -0.1663614809513092,
        -0.23921184241771698,
        -0.6253254413604736,
        0.8163198828697205,
        0.14203640818595886,
        0.32706522941589355,
        -0.04385089501738548,
        -0.2210482954978943,
        0.4129316210746765,
        0.2588631808757782,
        0.4277690649032593,
        0.03740314766764641,
        -0.25531405210494995,
        0.3559768795967102,
        0.9257521033287048,
        0.028952617198228836,
        0.6324883699417114,
        0.49052074551582336,
        1.1717280149459839,
        0.19573038816452026,
        -0.53427654504776,
        0.8862030506134033,
        -0.5348827838897705,
        0.10500366985797882,
        0.6806766390800476,
        1.5582252740859985,
        0.702133059501648,
        0.09770724922418594,
        -0.4613357484340668,
        -0.2916397154331207,
        0.308869868516922,
        -0.5413809418678284,
        0.6598429083824158,
        0.050978414714336395,
        -0.07062127441167831,
        0.19628936052322388,
        0.06313210725784302,
        -1.1523998975753784,
        -0.20450948178768158,
        0.3197160065174103,
        0.012324189767241478,
        -0.17199033498764038,
        0.3166393041610718,
        0.5430262684822083,
        0.15018297731876373,
        0.3308274447917938,
        -0.01725734770298004,
        -0.5554760694503784,
        0.7718926072120667,
        0.8570805788040161,
        0.48605310916900635,
        -0.07569728791713715,
        -0.5936198234558105,
        -0.5204051733016968,
        0.44222959876060486,
        -1.1978869438171387,
        0.6096901893615723,
        -0.7111002206802368,
        -0.4354488253593445,
        -0.805238664150238,
        -0.16815698146820068,
        -1.3523119688034058,
        -0.503429114818573,
        0.24952886998653412,
        -0.9175183176994324,
        -0.9604074358940125,
        0.34272611141204834,
        0.7147461771965027,
        -0.6125726103782654,
        -0.0018525714986026287,
        -0.4684068560600281,
        0.6608307361602783,
        -1.1309703588485718,
        -0.11708363145589828,
        -0.8783342838287354,
        -0.5795077681541443,
        -0.6878486275672913,
        -0.9259344935417175,
        -0.42264842987060547,
        -0.24730618298053741,
        0.9083250164985657,
        -0.4549475312232971,
        0.28960317373275757,
        0.8813656568527222,
        0.0919264629483223,
        0.6797882914543152,
        -0.6549449563026428,
        -0.2415468394756317,
        0.8100987076759338,
        0.16835136711597443,
        0.15961970388889313,
        0.023164402693510056,
        -1.0836926698684692,
        -0.14080747961997986,
        0.04308701679110527,
        0.05137043446302414,
        -0.34970226883888245,
        -0.7926120758056641,
        -0.6250730156898499,
        0.09470243752002716,
        -0.1301412731409073,
        -1.2547703981399536,
        -0.5917581915855408,
        0.07387498766183853,
        -0.09494531899690628,
        -0.623136043548584,
        0.06440708786249161,
        0.6014474034309387,
        -1.0969159603118896,
        0.1840665489435196,
        -1.0886149406433105,
        -0.918075680732727,
        -0.06781924515962601,
        -0.19065050780773163,
        0.5786101818084717,
        0.5070388317108154,
        0.2326578050851822,
        0.4113973081111908,
        0.242075577378273,
        -2.5781729221343994,
        0.21089084446430206,
        0.1427428424358368,
        0.28128543496131897,
        0.007186078000813723,
        -0.1526801437139511,
        0.4757358431816101,
        0.25657641887664795,
        -1.101615071296692,
        -0.10182000696659088,
        -0.22504548728466034,
        0.23966631293296814,
        -0.16057424247264862,
        -0.10365422070026398,
        -0.7147747278213501,
        -0.4039817154407501,
        -0.50023353099823,
        -0.11932238191366196,
        0.5604751110076904,
        0.1071467325091362,
        -0.42275282740592957,
        0.28206872940063477,
        -1.3982250690460205,
        -0.13891750574111938,
        0.4182952046394348,
        0.2141563594341278,
        0.23273210227489471,
        -0.06444671005010605,
        -0.39819595217704773,
        -0.04192812740802765,
        -0.3466717302799225,
        0.2841853201389313,
        0.44231802225112915,
        -0.545301616191864,
        -1.3858518600463867,
        0.17141278088092804,
        0.20200875401496887,
        0.45004919171333313,
        -0.11739706248044968,
        0.15828095376491547,
        -0.18004341423511505,
        0.28450170159339905,
        0.5540606379508972,
        0.08747024089097977,
        -0.587889552116394,
        0.35922563076019287,
        -0.141939178109169,
        -0.24182039499282837,
        0.2582864761352539,
        -0.387696236371994,
        0.08994118124246597,
        0.4788830876350403,
        -0.9237592816352844,
        0.2045726478099823,
        0.14750321209430695,
        0.11452651768922806,
        0.041370291262865067,
        0.11289795488119125,
        -0.5508539080619812,
        -1.409169316291809,
        -0.46731439232826233,
        0.17671136558055878,
        0.16223376989364624,
        0.24220114946365356,
        0.17507681250572205,
        0.0860101655125618,
        0.28878140449523926,
        -0.15945684909820557,
        0.12667788565158844,
        0.06466806679964066,
        0.0057830666191875935,
        -0.3348861336708069,
        -0.010922495275735855,
        -1.867614507675171,
        -0.7491745948791504,
        0.026631366461515427,
        -0.0172162726521492,
        -0.37283751368522644,
        -0.1620936393737793,
        -0.5968125462532043,
        0.6058365702629089,
        -0.34452542662620544,
        -0.3527686893939972,
        -0.12266949564218521,
        0.1217421144247055,
        0.5014274716377258,
        0.08347045630216599,
        0.17994453012943268,
        -0.09384258091449738,
        0.4291987717151642,
        -0.11227914690971375,
        -0.024677634239196777,
        0.03630632534623146,
        0.21102695167064667,
        0.6586644649505615,
        -0.4111972153186798,
        -0.8432756662368774,
        0.16436588764190674,
        0.5420178174972534,
        0.5553895235061646,
        -1.198660969734192,
        -0.2671319544315338,
        -0.15404997766017914,
        -0.04191848635673523,
        -0.11985087394714355,
        -0.2522962987422943,
        0.03426038473844528,
        -0.5992010235786438,
        -0.12575210630893707,
        -0.12221948802471161,
        -0.2281009405851364,
        -0.36469364166259766,
        -0.18612951040267944,
        -0.14461731910705566,
        -0.6219980716705322,
        0.20625312626361847,
        0.17505547404289246,
        -0.3747011125087738,
        -0.1825457662343979,
        -0.2773439288139343,
        -0.5141908526420593,
        -0.24509677290916443,
        0.014943438582122326,
        0.3133954107761383,
        -0.0626363456249237,
        -0.46804460883140564,
        -0.6089877486228943,
        -0.0481521300971508,
        -0.20853158831596375,
        -0.09559305757284164,
        -0.22674721479415894,
        -0.11845631152391434,
        -0.05620576813817024,
        0.04974762722849846,
        -0.07651737332344055,
        0.11785006523132324,
        -0.576653003692627,
        0.02919606864452362,
        -0.24756386876106262,
        0.3901771306991577,
        -0.08218571543693542,
        -0.4911115765571594,
        -0.07817142456769943,
        0.025811823084950447,
        -0.6956597566604614,
        -0.49881213903427124,
        0.14187338948249817,
        -0.33859243988990784,
        0.12276516854763031,
        -0.0925937220454216,
        -0.5854395627975464,
        -0.5058091878890991,
        0.005174323450773954,
        -0.5328407883644104,
        -0.34730470180511475,
        -0.37620389461517334,
        -0.5352609753608704,
        -0.3041810095310211,
        -0.5032893419265747,
        -0.07560805231332779,
        -0.025302117690443993,
        -0.6355487108230591,
        -0.32912373542785645,
        -0.6128700375556946,
        -0.12206806987524033,
        -0.10457269102334976,
        0.13763336837291718,
        -0.06642523407936096,
        -0.151117205619812,
        -0.8791817426681519,
        -0.02674383483827114,
        0.05312223732471466,
        0.11476557701826096,
        0.3786049485206604,
        -0.0659952238202095,
        -0.3243498206138611,
        -0.11332622915506363,
        -0.20433825254440308,
        -0.2970086336135864,
        -0.26745909452438354,
        0.1790342777967453,
        -0.033710967749357224,
        0.313641220331192,
        -0.13193270564079285,
        0.15901370346546173,
        -0.4153409004211426,
        0.22937703132629395,
        -0.045688219368457794,
        -0.3561230003833771,
        -0.3761409521102905,
        0.9285364747047424,
        -0.11831589043140411,
        -1.38560152053833,
        -0.13930997252464294,
        -0.3114550709724426,
        -0.3415849208831787,
        0.20842939615249634,
        0.2862168550491333,
        -0.6557337641716003,
        -0.24586251378059387,
        -0.34500762820243835,
        0.8621907234191895,
        -0.4034704267978668,
        0.1310468167066574,
        -0.37656301259994507,
        0.22778357565402985,
        -0.15107986330986023,
        -1.643294334411621,
        -0.14095081388950348,
        0.43115827441215515,
        -0.24983547627925873,
        -0.06047550216317177,
        0.3596174418926239,
        0.4754692018032074,
        -0.7977913618087769,
        -0.18204933404922485,
        -0.24155458807945251,
        -0.06084322929382324,
        0.2673569619655609,
        -0.20056100189685822,
        0.05728205665946007,
        -0.281065434217453,
        0.03881791606545448,
        0.18030928075313568,
        0.09772475808858871,
        -0.06827450543642044,
        -0.4137382209300995,
        -0.04923368617892265,
        -0.38027191162109375,
        -0.629481315612793,
        -0.10376175493001938,
        0.13528721034526825,
        -0.36566638946533203,
        -1.2702176570892334,
        0.6949222087860107,
        -0.2995561957359314,
        0.2691235840320587,
        -0.22511135041713715,
        -0.024131694808602333,
        0.6773551106452942,
        -0.11669040471315384,
        0.1316760927438736,
        -0.14342546463012695,
        0.1672007441520691,
        0.020440103486180305,
        0.05825367942452431,
        -0.7087813019752502,
        -0.4962807893753052,
        -0.6157575249671936,
        0.020943796262145042,
        -0.15921607613563538,
        -0.5819422602653503,
        0.003264958970248699,
        -0.4854692816734314,
        0.12957985699176788,
        0.12091215699911118,
        0.10341496020555496,
        -0.041525859385728836,
        -0.5332595109939575,
        0.49723291397094727,
        -0.5207169055938721,
        0.05547574907541275,
        -1.507719874382019,
        -1.0601640939712524,
        -0.47781622409820557,
        -0.18792304396629333,
        -0.29324573278427124,
        -0.29765215516090393,
        0.2707688808441162,
        -0.5209018588066101,
        0.05368925258517265,
        0.07003416121006012,
        -0.417293906211853,
        -0.6709313988685608,
        -1.413095235824585,
        0.1547316163778305,
        0.24577596783638,
        0.2596101462841034,
        -0.7940862774848938,
        0.386035680770874,
        -2.162680149078369,
        0.698460042476654,
        -1.8048666715621948,
        -0.07341562956571579,
        -0.018406638875603676,
        0.5126343965530396,
        0.11875167489051819,
        -0.04506124556064606,
        -1.3720349073410034,
        0.4173852205276489,
        0.0627146065235138,
        0.07691110670566559,
        -0.3072737753391266,
        -1.592075228691101,
        -0.2353258728981018,
        -1.5390383005142212,
        -0.09936036169528961,
        -1.4841305017471313,
        -0.2025749683380127,
        -1.7927567958831787,
        -0.05106141418218613,
        -0.19848878681659698,
        -1.5212035179138184,
        -0.22934862971305847,
        -0.2215701788663864,
        0.3342020809650421,
        -1.2574667930603027,
        -0.4064880907535553,
        0.48706793785095215,
        -1.1845502853393555,
        -0.49437037110328674,
        -1.0720727443695068,
        -0.24351446330547333,
        -0.46712926030158997,
        -0.19782552123069763,
        -0.7238814234733582,
        -0.18482863903045654,
        -0.2728266417980194,
        0.021344855427742004,
        -0.3122187554836273,
        -0.33535656332969666,
        0.053350780159235,
        -0.11481006443500519,
        -0.1221703439950943,
        -0.09203626215457916,
        -0.06609978526830673,
        -0.0410991832613945,
        -0.134923055768013,
        -0.1765686422586441,
        -0.20363111793994904,
        -0.08692466467618942,
        -0.1610143929719925,
        0.07225829362869263,
        0.039858750998973846,
        -0.18492086231708527,
        0.07702147215604782,
        0.13759049773216248,
        -0.22381490468978882,
        -0.3509792983531952,
        -0.10001476109027863,
        -0.07895757257938385,
        0.032816074788570404,
        0.17961379885673523,
        0.06017032638192177,
        -0.11225326359272003,
        0.10536684095859528,
        -0.024044515565037727,
        -0.12948842346668243,
        -0.010012379847466946,
        -0.057648688554763794,
        -0.16178317368030548,
        -0.10004342347383499,
        0.06382822245359421,
        -0.06813890486955643,
        -0.10019952058792114,
        -0.02432096377015114,
        -0.45217809081077576,
        -0.01797638088464737,
        -0.34082290530204773,
        -0.18558789789676666,
        -0.355812668800354,
        -0.14832477271556854,
        -0.07602863758802414,
        0.23435208201408386,
        -0.020143583416938782,
        0.00365329347550869,
        -0.25752827525138855,
        -0.13235078752040863,
        -0.1934749335050583,
        0.015815090388059616,
        -0.2511705756187439,
        -0.17151613533496857,
        0.11658404767513275,
        -0.04341350123286247,
        0.09190083295106888,
        -0.15461598336696625,
        -0.3129827678203583,
        -0.27863848209381104,
        -0.059572529047727585,
        0.05887952819466591,
        0.14534680545330048,
        -0.4805373549461365,
        -0.346587598323822,
        -0.2197185754776001,
        0.0095141576603055,
        -0.30434450507164,
        -0.7810580730438232,
        -0.48655131459236145,
        0.04792573302984238,
        0.11342168599367142,
        -0.16146714985370636,
        0.06911099702119827,
        -0.4520522356033325,
        0.208258256316185,
        -0.3255116641521454,
        0.16342006623744965,
        -0.18990366160869598,
        -0.47858771681785583,
        -0.36503419280052185,
        0.014816751703619957,
        -0.5732595324516296,
        -0.17986814677715302,
        -0.036059990525245667,
        -0.16879285871982574,
        -0.4715074598789215,
        -0.18528273701667786,
        -0.6205968856811523,
        -0.030129533261060715,
        0.06594127416610718,
        -0.3088659644126892,
        -0.25876036286354065,
        0.2967919409275055,
        0.18309900164604187,
        -0.026948772370815277,
        -0.14942467212677002,
        0.2405468076467514,
        -0.044238097965717316,
        -0.0022490443661808968,
        -0.8304448127746582,
        -0.08703571557998657,
        -0.05193604528903961,
        -0.21357272565364838,
        -0.49740883708000183,
        -0.4050471782684326,
        0.08731266111135483,
        -0.3645904064178467,
        -0.4687473475933075,
        -0.2303462028503418,
        0.30310413241386414,
        -0.04409152641892433,
        -0.3656572699546814,
        -0.05606390908360481,
        -0.302158385515213,
        -0.00865818839520216,
        -0.1956501305103302,
        -0.21230949461460114,
        0.35739508271217346,
        0.3420388698577881,
        0.11045359820127487,
        0.025693368166685104,
        -0.16267596185207367,
        -0.27778559923171997,
        -0.09273184835910797,
        -0.29757100343704224,
        -0.34016019105911255,
        0.06334075331687927,
        0.12903322279453278,
        0.23874501883983612,
        -1.4543837308883667,
        -0.48146572709083557,
        0.01733815297484398,
        -0.48090049624443054,
        -0.09757526963949203,
        0.7706340551376343,
        -0.3711952865123749,
        0.3599982261657715,
        -0.39418211579322815,
        0.11930643767118454,
        0.08011781424283981,
        -0.9289358258247375,
        0.3178209066390991,
        0.21693283319473267,
        -0.15989890694618225,
        1.0741599798202515,
        -0.35006096959114075,
        -0.3809823989868164,
        0.47981518507003784,
        0.1605169177055359,
        -0.25622472167015076,
        0.07608657330274582,
        0.4344128668308258,
        -0.19347938895225525,
        0.2504623830318451,
        -0.15938590466976166,
        0.31997668743133545,
        0.1703350991010666,
        -0.036415185779333115,
        0.08873017132282257,
        -0.08170851320028305,
        -0.155877023935318,
        -0.5484820604324341,
        -0.11694938689470291,
        0.06438608467578888,
        0.21882206201553345,
        0.48781150579452515,
        -0.7932615876197815,
        0.45550206303596497,
        -0.14420124888420105,
        -0.33098554611206055,
        -0.011846221052110195,
        0.11197493225336075,
        0.2583186626434326,
        0.03163490444421768,
        0.08458267152309418,
        0.7636993527412415,
        1.0048693418502808,
        0.39756593108177185,
        0.14633917808532715,
        -0.18233801424503326,
        -0.8070253133773804,
        -0.1483897566795349,
        -1.384171962738037,
        0.14784784615039825,
        0.41126543283462524,
        -0.10984291136264801,
        -0.4008723795413971,
        0.495110422372818,
        -0.18343748152256012,
        -0.15215682983398438,
        -0.6062650084495544,
        -0.02160012535750866,
        0.44603589177131653,
        0.2877916991710663,
        -0.0966072827577591,
        -1.1811790466308594,
        0.0070675029419362545,
        0.25362375378608704,
        0.5545617938041687,
        -0.8448245525360107,
        -0.5609641075134277,
        0.3750591576099396,
        -1.0782257318496704,
        0.5133134722709656,
        0.028527168557047844,
        0.3497917354106903,
        -0.41388314962387085,
        -0.20773683488368988,
        0.14225523173809052,
        0.825251579284668,
        -0.5813291072845459,
        -1.7186353206634521,
        -0.19498686492443085,
        -0.22558137774467468,
        0.41697150468826294,
        1.4381660223007202,
        0.7300671339035034,
        -0.669698178768158,
        0.06539426743984222,
        -0.7255932688713074,
        0.48671770095825195,
        -0.21925507485866547,
        0.43265342712402344,
        0.5506535768508911,
        -0.8112636208534241,
        -0.5394334197044373,
        0.5390467643737793,
        0.47042664885520935,
        0.006217649206519127,
        0.07616888731718063,
        -1.0053294897079468,
        0.04510543867945671,
        -0.3331410884857178,
        -0.5745631456375122,
        0.14554481208324432,
        -1.108530879020691,
        -0.9898197054862976,
        0.16531428694725037,
        0.1301666498184204,
        -0.27904364466667175,
        0.034997839480638504,
        -0.06704376637935638,
        -0.20537646114826202,
        -0.9871163964271545,
        -0.7535966634750366,
        -0.24987685680389404,
        -0.31199073791503906,
        0.2855823338031769,
        -0.7887558937072754,
        -1.005898356437683,
        -0.10600822418928146,
        0.09572210162878036,
        -0.28364598751068115,
        -0.04882581904530525,
        -0.37677162885665894,
        -0.1388169229030609,
        0.0746035948395729,
        0.5110116600990295,
        -0.38029155135154724,
        -0.42894676327705383,
        0.005455078557133675,
        -0.0935181975364685,
        0.03859176114201546,
        -0.42793363332748413,
        -0.1806698590517044,
        -0.14354990422725677,
        -0.28172990679740906,
        -0.35735881328582764,
        -0.09654104709625244,
        0.0954737439751625,
        -0.2926635146141052,
        -0.26545724272727966,
        0.06959716230630875,
        0.07015834748744965,
        -0.1384892612695694,
        -0.0430145189166069,
        -0.27725592255592346,
        -0.13768674433231354,
        -0.30924558639526367,
        -0.3217659890651703,
        -0.10407483577728271,
        -1.3135037422180176,
        -0.35646745562553406,
        0.10747065395116806,
        0.2890539765357971,
        0.03205574303865433,
        0.0625331699848175,
        0.10059075802564621,
        -0.5260674357414246,
        -0.46062785387039185,
        -0.23087650537490845,
        -0.18310119211673737,
        0.35457319021224976,
        -1.5268216133117676,
        0.18745456635951996,
        0.16773496568202972,
        0.12731723487377167,
        0.02208472043275833,
        0.04762307554483414,
        0.19721181690692902,
        -0.1775660365819931,
        -0.15331368148326874,
        0.19305847585201263,
        -0.06500611454248428,
        -0.29956522583961487,
        -0.32286572456359863,
        0.37909752130508423,
        0.06162401661276817,
        -0.1272358000278473,
        -0.2793457508087158,
        -0.11498719453811646,
        0.09479241818189621,
        0.04870254173874855,
        0.16074401140213013,
        -0.2936239242553711,
        0.02201489545404911,
        -0.9022538065910339,
        0.005367544014006853,
        -0.3922509551048279,
        -0.4773728847503662,
        0.14770640432834625,
        -0.3192540109157562,
        -0.35246774554252625,
        0.08125334978103638,
        -0.39596396684646606,
        0.03170938044786453,
        -0.43648719787597656,
        0.02614131197333336,
        -0.4071369767189026,
        0.1435430496931076,
        -1.0241681337356567,
        -0.06862572580575943,
        0.28062355518341064,
        0.5762284398078918,
        0.3321104645729065,
        -0.08294982463121414,
        -0.3821995258331299,
        0.25888991355895996,
        -0.00497414730489254,
        -0.2854442000389099,
        0.45124566555023193,
        -0.12939776480197906,
        0.10091612488031387,
        -0.08522728830575943,
        0.3137129247188568,
        -0.46681949496269226,
        0.08330755680799484,
        -0.5745635628700256,
        0.3622591197490692,
        0.5701513290405273,
        -0.23036563396453857,
        0.6499918699264526,
        -0.1189328208565712,
        -0.6540859341621399,
        0.33824485540390015,
        0.1832050234079361,
        0.43655267357826233,
        -0.5371766686439514,
        -0.4281552731990814,
        -0.1449684202671051,
        0.03896895423531532,
        -0.9126629829406738,
        -0.27856096625328064,
        -0.2058400809764862,
        -0.8339443802833557,
        -0.05403530225157738,
        -0.12671947479248047,
        -0.22013220191001892,
        -0.9581329822540283,
        0.3761615455150604,
        -0.07734445482492447,
        0.042494967579841614,
        -0.1818452775478363,
        0.6736935973167419,
        -0.5480196475982666,
        0.2832295298576355,
        -0.35099324584007263,
        -0.4749390482902527,
        0.004095031879842281,
        -0.33669593930244446,
        0.5222507119178772,
        -0.20561358332633972,
        -0.7995216846466064,
        -0.6090205907821655,
        0.41838914155960083,
        -0.7292980551719666,
        0.2885998785495758,
        -0.18797503411769867,
        -0.5220746994018555,
        -1.4115242958068848,
        -0.5202001333236694,
        -2.122622013092041,
        -1.6178022623062134,
        -0.43235206604003906,
        -0.8550240397453308,
        -0.44839125871658325,
        -0.23182588815689087,
        0.04674988612532616,
        -0.2520657777786255,
        -0.2037503719329834,
        -1.0236353874206543,
        0.05712760612368584,
        -0.7076743245124817,
        -0.7986512184143066,
        -0.31935247778892517,
        -0.0543316975235939,
        -0.31652209162712097,
        0.1620030701160431,
        0.213453009724617,
        -1.8341463804244995,
        0.012587987817823887,
        -1.2798336744308472,
        -0.21172568202018738,
        -0.6761173009872437,
        0.1324198693037033,
        0.274812251329422,
        -0.5403202176094055,
        -1.566303014755249,
        0.30231598019599915,
        0.6286762356758118,
        0.21819785237312317,
        -0.17634108662605286,
        -2.802550792694092,
        -0.2879200279712677,
        -1.6484155654907227,
        0.07692824304103851,
        -0.1543184220790863,
        -1.1730220317840576,
        -1.3619848489761353,
        -0.06890714168548584,
        0.23307617008686066,
        -0.48030945658683777,
        -0.24376381933689117,
        -0.3083796799182892,
        0.07158499211072922,
        -0.03745193034410477,
        0.02563624083995819,
        0.13381195068359375,
        -1.5889383554458618,
        -0.0935555174946785,
        -0.5672814249992371,
        -0.9021583795547485,
        -0.5415443181991577,
        -0.2933434247970581,
        0.6115593314170837,
        0.07306183874607086,
        0.041175149381160736,
        0.359198659658432,
        0.9972395300865173,
        1.582721471786499,
        0.2423105686903,
        0.2935144305229187,
        0.5870561003684998,
        -0.13108764588832855,
        -0.10312274843454361,
        -0.620471715927124,
        0.062093086540699005,
        0.5465796589851379,
        0.3252083659172058,
        -0.0017089730827137828,
        -0.6788711547851562,
        0.20025499165058136,
        -0.021128956228494644,
        -0.04141974821686745,
        0.14867602288722992,
        0.35490572452545166,
        0.1460573971271515,
        0.010825649835169315,
        0.2583857476711273,
        -0.19742871820926666,
        0.4321626126766205,
        -0.09740804135799408,
        0.5166161060333252,
        0.14787864685058594,
        0.46626630425453186,
        -0.4565638303756714,
        0.7291333675384521,
        -0.02451801300048828,
        0.24111448228359222,
        0.8645693063735962,
        0.39060258865356445,
        -0.25816020369529724,
        0.8100802302360535,
        0.26434481143951416,
        0.5489974617958069,
        0.7127772569656372,
        0.2919597029685974,
        -0.5971997380256653,
        0.17387478053569794,
        0.45612916350364685,
        0.3735653758049011,
        0.4092727601528168,
        0.2273680865764618,
        0.2087373435497284,
        -0.17356936633586884,
        0.17992261052131653,
        -0.36268898844718933,
        0.48633429408073425,
        0.099321149289608,
        -0.3249119222164154,
        0.0964873805642128,
        0.34698787331581116,
        0.13938084244728088,
        0.4427954852581024,
        0.09268562495708466,
        -0.5026236176490784,
        0.31254255771636963,
        0.6383650898933411,
        0.2960616648197174,
        -0.16969427466392517,
        0.1388767659664154,
        -0.3741163909435272,
        -0.12614047527313232,
        -0.19316796958446503,
        0.05625375360250473,
        -0.46687865257263184,
        0.22565993666648865,
        -0.11812596023082733,
        0.27912867069244385,
        -0.4494067430496216,
        -0.5278366804122925,
        -0.027359148487448692,
        -1.080635666847229,
        -0.9260647892951965,
        -0.019002990797162056,
        -0.3964899182319641,
        0.44626936316490173,
        -0.42530277371406555,
        -0.42504459619522095,
        -0.19714732468128204,
        0.04236476495862007,
        -0.13772499561309814,
        -0.4583677053451538,
        -0.719991147518158,
        1.0154187679290771,
        -0.08728120476007462,
        -0.365753710269928,
        -1.0259753465652466,
        0.7522867918014526,
        -0.33642181754112244,
        0.6841462850570679,
        0.5317815542221069,
        0.19062210619449615,
        0.48967015743255615,
        -1.3058085441589355,
        -0.2931874394416809,
        0.17593197524547577,
        0.553583562374115,
        0.7864415645599365,
        -1.1082136631011963,
        -0.5986497402191162,
        0.36602574586868286,
        -1.0317461490631104,
        -0.9034370183944702,
        -0.032034266740083694,
        -0.5239936709403992,
        -0.5261092185974121,
        0.10988914221525192,
        0.12855184078216553,
        -0.6567552089691162,
        -1.369170069694519,
        -0.047339633107185364,
        -0.19378818571567535,
        -1.1392542123794556,
        -0.4400748610496521,
        -0.571148157119751,
        -0.5398566126823425,
        -0.0568883903324604,
        -0.28080111742019653,
        -0.09595911204814911,
        -0.20510080456733704,
        0.48647767305374146,
        0.15607379376888275,
        0.7039713263511658,
        -0.5528230667114258,
        0.23765766620635986,
        -0.24601398408412933,
        -0.9532884955406189,
        -0.11944794654846191,
        0.8898250460624695,
        0.4879084527492523,
        0.7472781538963318,
        0.15971486270427704,
        0.1920555830001831,
        -0.08953043073415756,
        0.6428653597831726,
        -0.5066733956336975,
        0.46052953600883484,
        -0.37865591049194336,
        0.07040628790855408,
        -0.2774672210216522,
        -0.01725662313401699,
        0.402287095785141,
        -0.07917822152376175,
        -0.8928099274635315,
        -0.8309371471405029,
        0.4331730008125305,
        0.42547449469566345,
        -0.11885405331850052,
        -0.30543339252471924,
        0.28820422291755676,
        -0.35615402460098267,
        -0.20075610280036926,
        -0.15383778512477875,
        0.31132960319519043,
        0.28113338351249695,
        -0.13880611956119537,
        0.008646463043987751,
        0.4741213917732239,
        -1.5386182069778442,
        0.0611579529941082,
        0.08782318234443665,
        0.29767584800720215,
        0.6079342365264893,
        -0.4548218250274658,
        0.013231998309493065,
        -0.8518798351287842,
        0.3068335950374603,
        0.1342545449733734,
        1.0089237689971924,
        -0.7295355796813965,
        0.1778431236743927,
        -0.22724413871765137,
        -0.5285184383392334,
        -0.933008074760437,
        -0.07789497077465057,
        -0.14923179149627686,
        -0.0064127277582883835,
        -0.10429848730564117,
        -0.24981307983398438,
        -0.9714836478233337,
        -0.1131424829363823,
        -0.3091006278991699,
        0.1603304147720337,
        0.872236430644989,
        -0.08281166106462479,
        -0.6766939759254456,
        -0.2257385402917862,
        -0.655409038066864,
        -1.18528413772583,
        -0.6160935759544373,
        -0.4253091812133789,
        -0.24157877266407013,
        -0.5190290212631226,
        0.15704239904880524,
        0.32506468892097473,
        -0.31026527285575867,
        0.8123524785041809,
        -1.1710238456726074,
        -0.07733681797981262,
        -0.1989516019821167,
        -0.1548815220594406,
        0.09311164915561676,
        0.8067532181739807,
        -0.4000091254711151,
        0.11327676475048065,
        -0.04012481868267059,
        -0.15757600963115692,
        -0.5270097851753235,
        -0.13369551301002502,
        0.3353276252746582,
        0.012386651709675789,
        -0.5647568106651306,
        -0.7485215663909912,
        -0.9412320256233215,
        0.1062946543097496,
        0.24979588389396667,
        0.22483907639980316,
        0.12754788994789124,
        -0.1809602826833725,
        0.42594000697135925,
        0.3798774480819702,
        -0.5258257389068604,
        -1.8181859254837036,
        0.6328914165496826,
        -0.32270774245262146,
        0.59164959192276,
        -0.6087507009506226,
        0.48816388845443726,
        -0.5575311183929443,
        0.11439471691846848,
        -0.6029288172721863,
        -0.602586567401886,
        -0.9552998542785645,
        0.3851334750652313,
        -0.41010668873786926,
        0.02826523780822754,
        -1.1386486291885376,
        -0.1939680278301239,
        -0.1251748949289322,
        0.1720399111509323,
        -1.0447262525558472,
        -0.125571608543396,
        0.0012495077680796385,
        0.2807123363018036,
        0.738176167011261,
        -0.39298200607299805,
        -0.7456927299499512,
        -0.0003864374593831599,
        -0.34855878353118896,
        -0.08973328769207001,
        -0.5937654376029968,
        0.35993775725364685,
        0.17316243052482605,
        0.24195042252540588,
        -0.16551433503627777,
        0.2743750214576721,
        -0.7951823472976685,
        0.5117612481117249,
        0.09313567727804184,
        0.004400547593832016,
        0.03505071997642517,
        -0.0633540228009224,
        0.26581478118896484,
        0.3158382773399353,
        -0.3075294494628906,
        0.24939429759979248,
        0.03921788930892944,
        -0.6150391101837158,
        -0.0084431366994977,
        0.22415105998516083,
        0.12860888242721558,
        -0.5844578742980957,
        -0.3074260950088501,
        0.04444809630513191,
        0.1948270946741104,
        0.09537909179925919,
        1.153951644897461,
        -0.3112596571445465,
        0.2592470943927765,
        0.01267411932349205,
        0.46222275495529175,
        -0.21788381040096283,
        0.3328190743923187,
        0.18554778397083282,
        -0.3589778244495392,
        0.3588128387928009,
        -0.6847689747810364,
        -0.15147408843040466,
        0.3297405242919922,
        -0.13647152483463287,
        0.6999261379241943,
        0.5423327684402466,
        -0.24104337394237518,
        -0.07983558624982834,
        -0.13714957237243652,
        -0.5326745510101318,
        0.5108869075775146,
        0.13111336529254913,
        0.3872606158256531,
        0.480888694524765,
        0.6811655163764954,
        0.16991586983203888,
        -0.39992618560791016,
        -0.31803959608078003,
        -0.11261894553899765,
        -0.2635594606399536,
        -0.2909393906593323,
        0.3850799798965454,
        0.08302638679742813,
        0.38103941082954407,
        -0.692948579788208,
        -0.009382946416735649,
        -0.1743345558643341,
        -0.25708749890327454,
        -0.06417243182659149,
        -0.10433714091777802,
        0.2613320052623749,
        0.45366141200065613,
        -1.2899870872497559,
        -0.8101734519004822,
        -0.1837756484746933,
        0.3031502366065979,
        -0.016277976334095,
        0.5673226118087769,
        0.09406086802482605,
        -0.7486237287521362,
        -0.7289661169052124,
        -0.050953976809978485,
        0.006275103893131018,
        -0.254599928855896,
        0.22948046028614044,
        -0.24853865802288055,
        -0.04752705618739128,
        -0.866557776927948,
        -0.19842864573001862,
        -0.1920204758644104,
        -0.39608120918273926,
        -0.4851367771625519,
        -0.4162091314792633,
        0.10368058830499649,
        -0.042966291308403015,
        0.4752120077610016,
        -0.366261750459671,
        -0.24023084342479706,
        0.8539103269577026,
        0.3243432343006134,
        -0.34163764119148254,
        0.20698055624961853,
        -0.00859898328781128,
        -0.5307953953742981,
        -0.9009182453155518,
        -0.044346876442432404,
        -0.2963685989379883,
        -0.3762241005897522,
        -0.47178539633750916,
        -0.8594363927841187,
        0.09735804796218872,
        0.5019153356552124,
        -0.5924665927886963,
        -1.161116361618042,
        0.2968529164791107,
        -1.4502217769622803,
        0.46728262305259705,
        -0.05145292729139328,
        0.5904977917671204,
        -0.01103468332439661,
        -0.3291488289833069,
        0.10472171008586884,
        0.019224092364311218,
        0.4324703812599182,
        0.3488102853298187,
        0.5813408493995667,
        -1.0305514335632324,
        -0.1458190679550171,
        -0.567367672920227,
        -0.20826312899589539,
        -0.020210327580571175,
        0.2334904968738556,
        -0.030628042295575142,
        -0.11323055624961853,
        -0.02206914871931076,
        -0.6586978435516357,
        -1.5601561069488525,
        0.10215321183204651,
        -0.9642950892448425,
        0.3108695447444916,
        0.45407912135124207,
        -0.21259194612503052,
        -0.3156483471393585,
        0.3346688151359558,
        -1.328162431716919,
        -0.9279901385307312,
        -0.30071738362312317,
        0.5754485130310059,
        -2.035914659500122,
        -0.5631104111671448,
        0.02222336456179619,
        -0.0717252567410469,
        -1.1832295656204224,
        0.7909121513366699,
        -0.13812708854675293,
        -0.3963058888912201,
        0.37495261430740356,
        -0.17629750072956085,
        -1.7915444374084473,
        -0.7627541422843933,
        0.42429834604263306,
        -0.8006246089935303,
        -0.24406754970550537,
        -0.39942666888237,
        -1.7213808298110962,
        0.3898259699344635,
        -0.08335506916046143,
        0.41430023312568665,
        -0.19329211115837097,
        -0.6646941900253296,
        -1.0298656225204468,
        -0.7190568447113037,
        0.11078295856714249,
        -0.13831281661987305,
        0.29750677943229675,
        -0.6289344429969788,
        0.001961439149454236,
        -0.5873273611068726,
        0.25070101022720337,
        0.1999979019165039,
        0.46264103055000305,
        -0.04354840889573097,
        -0.21167123317718506,
        0.18948666751384735,
        0.2007925808429718,
        -0.18312233686447144,
        0.4755764901638031,
        0.3368321359157562,
        -0.3138221800327301,
        0.06584014743566513,
        -0.4200406074523926,
        -0.33469852805137634,
        -0.00953583512455225,
        -0.2041579633951187,
        -0.18387499451637268,
        -0.7543867826461792,
        -0.3563920557498932,
        0.4479564428329468,
        -0.6071200966835022,
        -0.2777654528617859,
        -0.7869495153427124,
        -0.243626207113266,
        0.24678558111190796,
        0.07789260894060135,
        -0.08428256213665009,
        -0.07418308407068253,
        -0.5570386052131653,
        0.05094432830810547,
        -1.0215867757797241,
        -0.2098807394504547,
        0.3925440013408661,
        -0.09146761894226074,
        0.15526989102363586,
        -0.0631328821182251,
        -0.033170513808727264,
        0.7208694815635681,
        -0.4744968116283417,
        0.2554151713848114,
        0.3203606605529785,
        -0.12320774048566818,
        0.020527180284261703,
        -0.12438835203647614,
        -0.2088010609149933,
        -0.7701572775840759,
        -0.060648996382951736,
        -0.4869488775730133,
        -0.02279643900692463,
        -1.249970555305481,
        -0.9754963517189026,
        -0.50380539894104,
        -0.24804016947746277,
        0.07828941941261292,
        0.036233872175216675,
        -0.2734537124633789,
        0.21710582077503204,
        0.18243440985679626,
        0.16253677010536194,
        0.15571367740631104,
        -0.16641543805599213,
        -0.5200980305671692,
        0.06098723039031029,
        -0.6118794083595276,
        -0.1892930567264557,
        -0.3586374521255493,
        -0.5205807685852051,
        -0.056891340762376785,
        -0.014048498123884201,
        0.38060054183006287,
        0.020382624119520187,
        -0.23486489057540894,
        -0.18749438226222992,
        0.08583531528711319,
        -0.008764456026256084,
        -0.3572700321674347,
        -0.3146745562553406,
        -0.7492560148239136,
        -0.11075131595134735,
        0.11321370303630829,
        0.21640115976333618,
        -0.3912927806377411,
        -0.24305127561092377,
        0.23044940829277039,
        0.41644930839538574,
        -0.5013428330421448,
        -0.7851040363311768,
        -0.25856098532676697,
        0.15771201252937317,
        -0.4439704418182373,
        -0.21900838613510132,
        -0.10332243889570236,
        0.20186224579811096,
        0.8777405023574829,
        -0.42653530836105347,
        -0.3926200270652771,
        -0.15661339461803436,
        0.19660145044326782,
        -0.7236426472663879,
        0.31569385528564453,
        0.08996917307376862,
        0.06884685158729553,
        -0.5140169858932495,
        0.21845461428165436,
        0.09912464022636414,
        0.007064725272357464,
        -0.47443169355392456,
        0.5608872771263123,
        -0.8670167326927185,
        0.6506772637367249,
        0.029209474101662636,
        0.6930506825447083,
        0.21132980287075043,
        -0.5251074433326721,
        -0.3815491199493408,
        0.13795340061187744,
        -0.8381051421165466,
        -0.6908087134361267,
        0.2623552680015564,
        -0.21444399654865265,
        -0.8370033502578735,
        -0.12089850008487701,
        0.03735426440834999,
        -0.8539820909500122,
        -0.0786338523030281,
        0.2406960129737854,
        0.2070169746875763,
        0.12017907947301865,
        -0.09685227274894714,
        0.14374786615371704,
        -0.3677002787590027,
        -0.22610482573509216,
        0.5461982488632202,
        -0.4403991103172302,
        0.03517767786979675,
        -0.38848066329956055,
        0.1473281979560852,
        -0.023769540712237358,
        -0.3634779155254364,
        -0.30013856291770935,
        0.05251891911029816,
        0.4014172852039337,
        -0.5583953261375427,
        0.039198849350214005,
        -0.24137981235980988,
        -0.0334748812019825,
        -0.6488680243492126,
        -0.1401659995317459,
        0.17621947824954987,
        0.2931709289550781,
        -0.5541020631790161,
        0.4067426025867462,
        -0.5598949790000916,
        0.17514543235301971,
        -0.06955529749393463,
        -0.013691689819097519,
        0.768803596496582,
        0.44993630051612854,
        -0.5331535935401917,
        -0.12530697882175446,
        -0.18320292234420776,
        0.18916192650794983,
        -0.013577586971223354,
        -0.39600130915641785,
        -0.3266569674015045,
        0.15230798721313477,
        0.03241918236017227,
        -0.2809106707572937,
        -0.8237260580062866,
        0.04823104664683342,
        -0.163936585187912,
        -0.10166164487600327,
        -1.3678022623062134,
        -0.3769080340862274,
        0.016498664394021034,
        -0.11862263083457947,
        -0.41979578137397766,
        0.33820024132728577,
        -0.9929447174072266,
        0.43441838026046753,
        0.9647538661956787,
        -0.09631914645433426,
        -0.4343976676464081,
        0.9666621088981628,
        0.44855552911758423,
        0.8151066899299622,
        -0.355207622051239,
        -1.0582680702209473,
        0.36310631036758423,
        -0.12143951654434204,
        -0.2908090651035309,
        0.0062136100605130196,
        -0.5530227422714233,
        -0.4537596106529236,
        -0.0733107179403305,
        0.25392335653305054,
        0.41132834553718567,
        -0.47233080863952637,
        0.38185372948646545,
        0.03508045896887779,
        -0.9512518644332886,
        -0.33358141779899597,
        0.47279107570648193,
        0.1524650901556015,
        0.788867175579071,
        -0.006337523460388184,
        -0.17711982131004333,
        -0.31219902634620667,
        0.7342196106910706,
        0.7820891737937927,
        -0.05303185060620308,
        0.08466608822345734,
        -0.18669436872005463,
        0.003855328541249037,
        0.10959738492965698,
        -0.7798853516578674,
        0.3699756860733032,
        -0.04065549001097679,
        -0.1704331785440445,
        -0.09213659912347794,
        -0.273939311504364,
        -0.7317854166030884,
        -0.3820120394229889,
        -0.17639794945716858,
        -0.1839829534292221,
        0.06079728901386261,
        -0.7979665398597717,
        -0.682596743106842,
        -0.07397104799747467,
        -0.1011403277516365,
        0.1789626181125641,
        -0.4194638133049011,
        -0.13883212208747864,
        0.02224419265985489,
        0.04624000936746597,
        -0.1397937387228012,
        -0.4367296099662781,
        0.09913739562034607,
        -0.7251120209693909,
        -0.22456111013889313,
        -0.07850635051727295,
        0.3137354850769043,
        -0.14580997824668884,
        0.14860329031944275,
        -0.26116129755973816,
        -0.4535228908061981,
        -0.21987488865852356,
        -0.08522417396306992,
        -0.1331946849822998,
        0.2620496451854706,
        -0.1840386837720871,
        0.035438116639852524,
        -1.0388145446777344,
        -0.4535400867462158,
        -0.1934889703989029,
        0.07991741597652435,
        -0.16695161163806915,
        -0.30388328433036804,
        0.06259109824895859,
        0.25660383701324463,
        -0.5847147107124329,
        -0.16513492166996002,
        -0.1749849021434784,
        0.1186906099319458,
        -0.20099951326847076,
        -0.20080703496932983,
        -0.18399211764335632,
        0.026555567979812622,
        -0.4207792282104492,
        -0.22845669090747833,
        0.06977962702512741,
        -0.12134455144405365,
        0.20559939742088318,
        -0.16829903423786163,
        -0.07292348891496658,
        0.509615421295166,
        0.25141215324401855,
        0.06468329578638077,
        -1.5899354219436646,
        0.7081128358840942,
        0.4243503212928772,
        0.5962924957275391,
        0.45392271876335144,
        0.3576159179210663,
        0.5212956070899963,
        0.8903694152832031,
        -0.6035900712013245,
        0.541838526725769,
        -0.4393634498119354,
        0.01209653913974762,
        -0.2507694959640503,
        -0.08642259240150452,
        0.08831500262022018,
        0.8158629536628723,
        -0.1335737109184265,
        1.0501006841659546,
        1.2015268802642822,
        0.4061867594718933,
        -0.39336398243904114,
        1.0626132488250732,
        -0.4840492308139801,
        0.31912940740585327,
        0.6406306028366089,
        0.408854216337204,
        0.6126700043678284,
        0.354497492313385,
        -0.2883969843387604,
        0.5434192419052124,
        0.19894585013389587,
        -0.06675825268030167,
        0.3021159768104553,
        0.220578134059906,
        0.8229065537452698,
        0.5002537965774536,
        1.3201110363006592,
        0.49389272928237915,
        0.2311667650938034,
        0.4224987328052521,
        0.10458185523748398,
        -0.348100483417511,
        0.9422128796577454,
        0.6161981225013733,
        0.48555561900138855,
        0.2075747698545456,
        0.09687676280736923,
        0.7394449710845947,
        -0.1097591444849968,
        -0.08401428908109665,
        0.3132750988006592,
        1.5585681200027466,
        0.048443060368299484,
        0.6891868114471436,
        -0.33421963453292847,
        0.3345562219619751,
        1.0757027864456177,
        0.7716799974441528,
        0.2020876556634903,
        0.32685545086860657,
        -0.6789945363998413,
        -0.46495118737220764,
        -0.6376794576644897,
        -0.28100526332855225,
        -0.4364660680294037,
        -0.03028944879770279,
        0.2803809344768524,
        -0.25279849767684937,
        0.30431729555130005,
        -0.4115930199623108,
        -0.3455960154533386,
        -1.5793819427490234,
        -0.06806928664445877,
        -0.6725647449493408,
        -0.1504572331905365,
        0.007728426717221737,
        0.19207528233528137,
        0.14590978622436523,
        -0.010229983367025852,
        -0.43664970993995667,
        0.5947237014770508,
        -0.7315657138824463,
        -1.4915329217910767,
        -1.1684842109680176,
        -0.05439012497663498,
        -0.024542495608329773,
        -1.5800278186798096,
        -0.11415112763643265,
        -1.026703119277954,
        0.2684268057346344,
        -0.8149153590202332,
        0.1984833925962448,
        -0.02105649746954441,
        -0.4684860408306122,
        0.8723767399787903,
        -0.2606961131095886,
        -1.795662760734558,
        0.6545760035514832,
        0.874805748462677,
        0.5606532096862793,
        0.001996275968849659,
        -1.23671293258667,
        0.0172797329723835,
        -1.1385412216186523,
        0.21704760193824768,
        -1.1426568031311035,
        -0.27267464995384216,
        -0.880594789981842,
        -0.13438816368579865,
        -0.4088086783885956,
        -0.5426766276359558,
        -0.10278773307800293,
        0.5944913625717163,
        0.11856816709041595,
        -0.48677411675453186,
        -0.5409085154533386,
        -0.3385218381881714,
        -0.8073461055755615,
        0.5627313852310181,
        -0.640872061252594,
        -0.7814431190490723,
        0.5251687169075012,
        0.4740811288356781,
        0.014685424976050854,
        0.24608875811100006,
        -0.023383047431707382,
        0.3612666726112366,
        -0.17119280993938446,
        -1.7945294380187988,
        0.47033238410949707,
        -0.17244769632816315,
        0.24015672504901886,
        0.47778815031051636,
        0.14815418422222137,
        0.25355732440948486,
        0.5696513056755066,
        -0.24728792905807495,
        0.4711981415748596,
        0.004417619667947292,
        0.8331844210624695,
        -1.1412827968597412,
        -0.3614736795425415,
        0.09260708838701248,
        -0.8390089869499207,
        0.14720864593982697,
        0.766757071018219,
        0.3754013180732727,
        -0.1639845371246338,
        0.06275996565818787,
        0.7702884078025818,
        -1.7617522478103638,
        -0.219359889626503,
        0.21895097196102142,
        -0.2757193148136139,
        0.1351829171180725,
        -0.5911937952041626,
        -0.2973184883594513,
        0.13964515924453735,
        -0.7198671102523804,
        0.11698422580957413,
        0.003171297023072839,
        -0.26308026909828186,
        -0.8941991925239563,
        -0.7000789642333984,
        0.435886412858963,
        -0.26358306407928467,
        0.43692639470100403,
        0.1868824064731598,
        0.13441239297389984,
        -0.5835506916046143,
        0.5069919228553772,
        0.24443089962005615,
        0.4755162000656128,
        0.2451407015323639,
        0.6607272624969482,
        0.6873087882995605,
        -0.14406698942184448,
        -0.41096222400665283,
        0.9236403107643127,
        0.2990380525588989,
        0.039662037044763565,
        0.27035266160964966,
        -0.47751355171203613,
        0.29224690794944763,
        0.10966503620147705,
        0.2629139721393585,
        -0.4743446111679077,
        -0.19431829452514648,
        -0.3619644045829773,
        -0.7081440091133118,
        -0.007829112932085991,
        0.5155571699142456,
        -0.918658971786499,
        0.05258621275424957,
        -0.06268277764320374,
        0.5939913988113403,
        -0.50052809715271,
        -0.14376215636730194,
        -0.5777180790901184,
        -0.26617828011512756,
        -0.2947845160961151,
        -0.4061957895755768,
        -0.06618133932352066,
        0.14492571353912354,
        -0.8959839940071106,
        -0.7109562158584595,
        -0.04605667665600777,
        0.029843343421816826,
        -0.3181288540363312,
        -0.27806031703948975,
        -0.6975507736206055,
        -0.8351976871490479,
        0.007001251447945833,
        -0.39385950565338135,
        -1.3919745683670044,
        0.44871971011161804,
        -0.1783084124326706,
        0.2139594554901123,
        -0.35526159405708313,
        0.06809341907501221,
        0.4653911888599396,
        -0.6525029540061951,
        -0.8485814929008484,
        -0.037270817905664444,
        -0.975824773311615,
        0.2906566262245178,
        0.5000453591346741,
        0.3109982907772064,
        -0.1747172623872757,
        -0.35503149032592773,
        0.1334758698940277,
        -0.8040143847465515,
        -0.45148766040802,
        -0.87632155418396,
        -1.0654480457305908,
        -0.43809667229652405,
        0.6413423418998718,
        0.43126317858695984,
        -0.23564578592777252,
        -1.2173279523849487,
        0.3113313913345337,
        -0.13547395169734955,
        -0.9083806276321411,
        -0.21152521669864655,
        -0.31348365545272827,
        -0.46005454659461975,
        0.13782848417758942,
        -0.7237079739570618,
        -0.8039201498031616,
        -0.04095251113176346,
        0.9109234809875488,
        0.19026654958724976,
        -0.22802330553531647,
        -0.41293999552726746,
        -0.23125740885734558,
        0.07760998606681824,
        -0.18769574165344238,
        -0.013400640338659286,
        0.2899076044559479,
        0.05302968621253967,
        0.27038854360580444,
        0.08108124881982803,
        -0.298923522233963,
        -0.40213829278945923,
        -0.7355580925941467,
        -0.05881807953119278,
        -0.4763931632041931,
        -0.17493821680545807,
        0.2612774074077606,
        0.511273205280304,
        -0.06147940829396248,
        -0.45325756072998047,
        -0.06577996909618378,
        0.06315282732248306,
        -0.11726823449134827,
        -0.7417122721672058,
        -0.12829191982746124,
        -0.1269676685333252,
        0.00726220803335309,
        -0.05252372473478317,
        -0.26071974635124207,
        0.10326443612575531,
        -0.7762525677680969,
        -0.06891965121030807,
        0.6885761022567749,
        -0.062443166971206665,
        0.07609213888645172,
        -0.5267913937568665,
        0.015395158901810646,
        0.29577869176864624,
        0.040800873190164566,
        0.16836072504520416,
        -0.08703862875699997,
        -0.032351069152355194,
        0.1734471619129181,
        0.09691493213176727,
        0.20893169939517975,
        -1.2668486833572388,
        -0.42763808369636536,
        -0.43753117322921753,
        -0.0015888671623542905,
        0.10178631544113159,
        -0.4512985646724701,
        -0.20210734009742737,
        -0.04443027079105377,
        -0.08775506913661957,
        -0.8117304444313049,
        -0.19304823875427246,
        0.15226005017757416,
        -0.18076969683170319,
        -0.2840138375759125,
        -0.08405359089374542,
        -0.18448494374752045,
        -0.5585241913795471,
        -0.4424287974834442,
        -0.14853347837924957,
        -0.22131498157978058,
        -0.14146557450294495,
        -0.33249181509017944,
        0.044029708951711655,
        -0.9284793734550476,
        -0.2646830976009369,
        -0.17863290011882782,
        -0.10403908789157867,
        -0.28305599093437195,
        -0.12133927643299103,
        -0.17727826535701752,
        0.06381470710039139,
